// Quantized INT8 weights and fixed-point params
#ifndef NN_WEIGHTS_H
#define NN_WEIGHTS_H

#include <stdint.h>

#define NN_INPUT_LEN 150
#define NN_INPUT_CH 6
#define NN_CONV1_OUT_CH 16
#define NN_CONV2_OUT_CH 32
#define NN_DENSE1_OUT 16
#define NN_NUM_CLASSES 3

// Label mapping from LabelEncoder
// 0 -> circle
// 1 -> left_right
// 2 -> updown

// Activation scales (float) for reference
#define SCALE_INPUT 5.0141622683e-02f
#define SCALE_CONV1_RELU 7.5148693848e-02f
#define SCALE_POOL1 7.5148693848e-02f
#define SCALE_CONV2_RELU 1.3900290709e-01f
#define SCALE_GAP 4.2190570306e-02f
#define SCALE_DENSE1_RELU 1.1482807945e-01f
#define SCALE_LOGITS 2.0173662102e-01f

// Weight scales (float) for reference
#define SCALE_W_CONV1 4.3472168976e-03f
#define SCALE_W_CONV2 3.2183021102e-03f
#define SCALE_W_DENSE1 4.9197758268e-03f
#define SCALE_W_DENSE2 6.5329694409e-03f

// Requantization params: out = (acc * MULT + ROUND) >> SHIFT
#define RQ_MULT_CONV1 3114499
#define RQ_SHIFT_CONV1 30
#define RQ_MULT_POOL1 1073741824
#define RQ_SHIFT_POOL1 30
#define RQ_MULT_CONV2 1868204
#define RQ_SHIFT_CONV2 30
#define RQ_MULT_GAP 1768798501
#define RQ_SHIFT_GAP 29
#define RQ_MULT_DENSE1 1940942
#define RQ_SHIFT_DENSE1 30
#define RQ_MULT_DENSE2 3992766
#define RQ_SHIFT_DENSE2 30

// Preprocess: raw → physical units → standardize → quantize to int8
// accel: raw / 16384.0 → g;  gyro: raw / 131.0 → deg/s
// standardize: (physical - MEAN) / STD
// quantize: round(standardized / SCALE_INPUT), clamped to [-128, 127]
const float NN_MEAN[NN_INPUT_CH] = {
  -0.039071f,  // ax [g]
   0.110681f,  // ay [g]
   0.895139f,  // az [g]
  -1.229286f,  // gx [deg/s]
   8.567729f,  // gy [deg/s]
   0.238436f,  // gz [deg/s]
};
const float NN_STD[NN_INPUT_CH] = {
  0.490854f,  // ax [g]
  0.296745f,  // ay [g]
  0.405138f,  // az [g]
  70.066f,    // gx [deg/s]
  38.428f,    // gy [deg/s]
  96.658f,    // gz [deg/s]
};

// Preprocess raw -> int8: q = (raw*S + Z) >> SHIFT
const int32_t PRE_S[NN_INPUT_CH] = {
  2600, 4302, 3149, 2278, 4154, 1651,
};
const int32_t PRE_Z[NN_INPUT_CH] = {
  1664502, -7800643, -46191906, 366816, -4662821, -51566,
};
const uint8_t PRE_SHIFT[NN_INPUT_CH] = {
  20, 20, 20, 20, 20, 20,
};

const int8_t CONV1_W[288] = {
  -88, 68, -19, 34, -75, 78, -25, -28, -5, -27, -61, 47,
  -4, 9, -7, 19, -12, 73, 46, 63, -59, 111, 24, -13,
  -23, 33, -64, -12, 11, 68, 25, 29, -93, 90, -19, -23,
  -20, 21, 32, 49, -87, 60, 70, 48, -90, -28, -44, -56,
  18, 55, -21, 77, -68, -5, 15, 18, -76, 88, 61, 48,
  -37, -9, -81, 124, 64, -2, -40, 43, -127, 57, 17, 29,
  -41, -2, -9, -58, -40, 96, -65, 34, -81, 37, 45, 65,
  -90, -44, 17, 28, 85, -11, -25, -59, -57, -25, 12, 82,
  -98, -34, 48, -51, -7, 76, -30, 52, -19, 0, 0, 95,
  74, 45, 10, 33, 42, -57, 58, -20, -78, 95, -53, -4,
  34, 48, -68, -6, -41, -107, -57, 19, -49, -104, -43, 0,
  57, 25, 67, -47, -6, -21, -32, 33, 68, -11, 8, -43,
  -43, -36, 54, 65, -60, 14, 47, -3, 58, -36, -24, 85,
  37, -17, 9, 24, 34, 76, -51, -44, 16, -79, -71, 35,
  -25, -20, 32, -64, -33, 62, -59, 3, 64, 10, -16, 95,
  -83, -6, 18, 3, 52, -49, -91, 1, 27, 2, 26, -30,
  -90, -42, -91, 27, 86, 79, -60, -64, -18, 32, 28, -68,
  -80, 52, 24, 34, -8, -96, 0, 32, 16, -23, -60, -56,
  20, 49, -82, -92, 97, 34, 2, -60, -32, -55, 39, 0,
  19, 56, -95, -106, 9, 35, 35, -13, -39, -44, -7, 37,
  21, -61, -30, -64, 47, 83, 30, -22, -105, 2, 113, 39,
  -13, 57, 32, -52, 30, 63, 69, 1, -57, 5, 58, 91,
  61, 52, -8, -32, 90, 119, 73, 87, -80, 36, -18, -32,
  94, 53, 15, 60, -42, -23, -14, 46, -75, 16, -33, -79,
};

const int32_t CONV1_B[16] = {
  649, 271, 418, 225, 253, -224, 216, -71,
  -87, -232, 220, 245, 2, 281, 388, 376,
};

const int8_t CONV2_W[1536] = {
  -42, 94, 49, 3, -80, -75, -24, 43, 6, 93, -55, -16,
  -8, -44, 33, 43, 38, 80, 55, 86, -26, 28, 33, 63,
  79, 19, 36, -34, 33, -9, -57, 72, 22, 93, 23, -4,
  -50, -71, 26, 20, 30, 23, -21, -43, 56, -23, -73, -9,
  -16, 91, 24, 42, -30, -29, -71, 101, 53, 11, 31, 4,
  14, 43, 60, 9, 29, 89, 0, 115, 31, -17, -21, 19,
  -39, 48, -22, -37, 114, 10, 47, 37, -43, 6, 24, 27,
  -16, -31, -43, 34, -14, -54, 79, 15, 107, 42, 57, 26,
  33, 5, -38, 79, 58, 3, 14, -8, -68, -78, -23, -48,
  53, 61, -59, 14, 17, -8, -26, 81, -18, 31, -33, 18,
  -14, -32, -10, -25, 50, -21, -19, -52, -14, 68, -20, 67,
  27, -35, -15, -35, 32, 37, -3, 34, -3, 47, 25, 54,
  45, 2, -50, 58, 75, 15, 12, -64, -31, 10, 41, 0,
  -7, 49, 53, -18, 24, -64, 37, -15, -28, 85, 18, 20,
  -75, 26, 31, -42, -53, 64, 74, 14, 13, -60, -17, 41,
  19, 7, -72, 27, 29, -2, 46, 50, 55, 71, 35, -31,
  52, -44, -29, 59, 86, 44, 36, -49, 11, -30, 24, 69,
  51, 65, 74, -62, 50, 53, -30, 38, -29, -26, 41, 25,
  7, 4, 72, 24, 9, 53, 39, -27, 42, 49, -46, -9,
  -12, -32, -10, 64, 43, -8, -5, -26, 43, -6, -25, -73,
  26, -42, -17, 91, 39, -2, -35, 19, -55, -88, 13, -25,
  68, 40, 51, -87, 23, -14, -82, 21, 0, 60, -86, -55,
  11, -65, -7, -14, 23, 25, 103, 29, 51, 67, -98, 28,
  110, 26, -61, -31, -17, -54, 115, 30, 25, 100, 18, -20,
  -42, 86, 69, 56, -31, 39, 37, 99, 61, 30, -60, -46,
  23, 51, 11, -17, 53, 53, 31, 73, -7, 1, 27, 24,
  31, 25, 15, 12, 1, 5, -33, 90, -32, 92, 83, 59,
  -41, -35, -33, -7, 6, -5, -29, 24, -10, 60, -61, 57,
  90, -73, 60, -105, 21, 75, -5, -49, 10, -3, -40, 31,
  -39, 40, -23, 90, 24, 25, 38, -25, 21, 11, 25, -52,
  106, 81, -42, -3, -31, 22, -12, 80, 29, 51, 45, -104,
  58, 74, 28, -28, 68, -2, -35, -9, 20, 35, 74, 95,
  -33, 88, -16, 20, 35, -21, -20, 1, -77, 4, -1, -92,
  109, 23, 60, -30, 15, 37, -80, 107, 39, -10, -54, -20,
  -1, 2, 87, -80, 46, 99, 31, -55, 11, 37, -76, 7,
  99, 27, -11, -22, -71, -62, -7, 1, 85, 65, -16, 27,
  31, -20, -37, -29, 45, 24, 13, -24, 47, -20, 80, 64,
  24, 92, 97, -24, -16, -8, -52, 54, 103, 23, -12, -11,
  47, -67, 43, 94, 72, 100, 47, -40, -21, -5, 30, 23,
  5, 78, -36, -60, -32, -32, 32, 67, 20, -7, 20, -1,
  -3, 58, 71, -11, -104, -81, -5, 32, 51, 31, -31, -45,
  37, -64, 16, -3, 48, 98, 28, 87, -97, -69, 81, 18,
  67, 56, -41, -59, 32, -66, -60, 15, -7, -2, 57, 46,
  -37, -26, 79, 22, 46, 50, 51, -50, 19, -5, 12, 68,
  38, 76, -11, 68, 52, 45, -65, -31, -30, -55, -4, -37,
  7, 0, -50, 44, -38, 74, 44, 79, 91, 19, 42, -59,
  -14, -69, 32, -12, -5, 56, 57, 17, -20, 41, -29, 116,
  74, 19, -11, -72, -42, -99, 7, -53, 28, 14, 13, -33,
  33, 74, 15, 92, -42, -23, 54, 6, 28, 13, 20, 1,
  14, 48, 36, 39, 56, 26, 41, 18, 31, -70, 6, 69,
  -86, -26, -24, -49, 52, 51, -44, -15, 75, 14, -30, 9,
  -39, -60, -32, -14, -51, -44, -43, 12, 81, 2, 3, -10,
  25, 62, -52, -19, 44, -2, -79, 44, 1, -60, -14, 39,
  -18, 113, 8, -22, 84, -35, -41, 37, 41, 14, -4, -3,
  35, -27, 86, 40, 21, 21, 19, -76, 61, 6, -9, 49,
  77, 103, -104, -31, -67, -16, 103, 86, 77, 29, 93, -26,
  -17, 37, 25, 86, -55, 34, 11, 41, -41, 18, 2, 48,
  -12, -2, -8, 10, -4, 22, -39, 37, -10, -53, 5, 34,
  14, 30, 28, -50, 74, 39, 46, -54, 35, -31, 14, 28,
  57, -65, -22, -8, 26, -16, -42, -36, -41, 2, 18, -23,
  -59, -19, -9, 12, 50, -1, -12, -57, 23, -23, 31, -33,
  11, -14, 17, -68, -1, 85, 10, -1, 1, 41, -71, 8,
  -15, -58, 53, -7, 73, 25, 53, 35, -63, 5, -49, 24,
  14, 55, 19, -20, 23, 13, -45, 40, -10, -10, 46, -53,
  33, 18, 53, 28, -64, -98, -39, 34, -41, 28, 44, -27,
  -37, -5, -52, -17, -43, 6, 7, -9, -54, -80, -44, 13,
  -4, 28, 6, 46, -28, -11, 10, -10, 49, 3, -1, -24,
  -27, -32, 7, -6, 17, 46, -21, 48, -13, -45, -25, -43,
  53, 50, 22, 93, -5, -23, -46, 30, 0, -73, 43, 4,
  29, 60, 23, 60, 56, 29, -13, 86, 20, -66, 16, -60,
  30, -25, 39, -20, 24, -32, -26, 69, -24, -7, 48, 66,
  40, -45, 7, 12, 9, -61, -24, -14, 0, 11, -35, 73,
  -30, 57, 67, 31, -30, -102, 113, 15, 67, 2, -10, -85,
  68, 24, 12, 22, 74, 37, 32, 90, -89, -123, 14, -39,
  66, -82, -48, -43, -18, -77, -66, 127, 47, 82, 37, 7,
  -21, -94, 55, -60, 24, -57, -98, -48, 10, -32, -17, 78,
  96, -84, -10, -45, 3, 61, 64, -64, -27, 61, 19, 1,
  30, -21, -13, 99, 72, -8, -2, -32, -4, 91, 71, -53,
  74, -2, 55, 40, -45, 37, 13, 41, 11, -7, 88, -86,
  -18, 86, -3, 21, 33, 34, 62, -28, -73, 39, -7, 89,
  -22, 24, 5, 26, -18, -17, -37, -64, 48, -7, 46, 30,
  33, 30, -18, -71, 8, 88, 41, 44, 67, 20, -61, -67,
  -63, 3, 4, -18, 26, -34, 12, -32, 25, 26, -50, 33,
  -32, -23, -63, -27, 46, -40, 37, -28, 74, 74, -44, -52,
  46, -27, -7, 15, -14, -70, 33, 14, 11, 91, -19, -22,
  21, -32, -44, 24, -38, 21, 16, 48, -47, 45, -7, 63,
  47, 65, 6, -51, 17, -29, 9, -27, -75, -64, -26, -45,
  22, -18, -69, 27, 6, -22, 44, 13, 45, -48, 43, 24,
  -13, -14, 31, -24, -35, -41, 33, 12, 60, 60, -17, -9,
  -17, 6, 19, 89, 40, 39, -1, -41, -36, -14, 62, -47,
  75, -25, -3, 7, 13, -22, -12, 69, 18, 78, 94, 51,
  -13, 50, 73, -22, -32, 70, -67, 6, 33, 13, -45, 62,
  -3, 10, 47, -15, -4, -1, 19, -35, -17, 81, 64, 25,
  -39, -46, 18, 33, 79, -23, -3, -55, -26, 18, 76, 23,
  74, 49, -20, 53, -5, 21, 40, 84, 90, -4, -37, -46,
  -4, 89, 60, -34, 71, 81, -49, -24, -65, 17, 70, 24,
  -22, -1, -11, 8, 29, -104, 36, 37, -36, 19, 46, 58,
  -51, 48, 89, 10, -15, 11, 34, -7, 12, -90, 85, -48,
  -46, -41, -22, 21, -91, 53, 42, 24, 31, 65, 0, -46,
  -67, -15, 114, -24, -64, -2, -15, 62, -39, -5, -5, 46,
  69, 9, 39, -69, 36, 72, 38, 14, 56, -24, -12, 73,
  21, -10, -29, -38, 76, -20, 26, 36, 4, 88, 99, 30,
  -17, 72, 12, 32, -39, -25, 69, 57, -28, 25, 48, 7,
  5, 88, 83, 55, 57, 62, 32, 15, -80, 23, 27, -14,
  48, 1, 35, -12, 18, 75, 107, -60, 49, 56, 18, 7,
  -52, 37, 25, -23, 54, -19, 67, -50, 84, 87, -9, -10,
  -49, -11, 53, 8, 21, 38, 20, 22, 4, -96, 11, -80,
  -4, 24, 45, -6, 40, -20, -38, 67, -84, -42, -3, 24,
  40, 75, 38, -22, -21, 39, 10, 13, 52, 81, -28, -52,
  15, -25, -40, 90, 75, 38, 4, -30, -48, -39, 123, -18,
  -13, 52, 1, -19, -7, -25, -29, 25, 86, 58, 16, 27,
  20, -43, 33, 39, -6, 19, 14, -21, 23, -2, -51, 27,
  85, -101, -40, -87, 64, 1, 71, -19, 40, 58, 12, 27,
  -38, 51, 28, -28, 40, -13, -21, 2, 48, 22, -29, -13,
  8, 92, 30, -28, -41, 28, 49, -66, 13, -78, 33, -96,
  78, 104, -34, -86, 44, 19, -27, -12, -54, -33, 33, -59,
  -28, 73, -44, 56, 22, 59, -43, -63, -11, -105, 46, 2,
  96, 23, -24, 25, 52, 80, -39, 14, -20, 22, -50, -64,
  20, -76, 37, -20, -9, 81, -37, 49, 15, 68, 43, 61,
  -1, 20, 29, 63, 18, -98, -48, -23, 33, -14, 14, -8,
  12, -73, 60, 30, 51, 73, 41, -74, -30, 18, 55, 69,
  50, 26, 70, 13, 11, -52, -24, 20, 46, 108, -7, -6,
  30, -12, 32, 3, -3, 36, 56, -59, 76, -49, 12, -9,
  86, 98, 46, -71, -39, 7, 64, 23, -4, 60, 8, -47,
  42, 12, -17, -60, 53, 7, 36, -80, -4, 48, 14, 64,
  -10, 16, 38, 34, 63, -62, 75, -83, 31, 55, 66, 11,
  33, -17, -12, 82, -49, -34, 8, 29, -17, -13, 7, -31,
  24, 111, 18, 23, 8, 21, 37, -27, 8, -4, 10, 36,
};

const int32_t CONV2_B[32] = {
  265, 460, 220, -88, 331, 446, 330, 114,
  349, 206, 143, -31, -9, 318, 101, -30,
  255, -7, 0, -64, 73, 153, 71, 16,
  23, 7, -106, -37, -236, 74, 130, -156,
};

const int8_t DENSE1_W[512] = {
  6, -6, -70, -79, 26, -79, 54, 96, -86, 24, 53, -8,
  63, -56, -27, -47, -73, 32, 55, 63, -48, 59, 1, 44,
  -2, 67, -14, 41, 56, -18, 11, -12, -52, -15, 26, -64,
  -50, -21, -20, -31, -60, 17, 16, -2, -31, 50, 41, -33,
  -18, -2, -21, 48, 21, 38, -62, -72, 52, 6, 29, -8,
  -54, -68, 58, 64, -33, -24, 8, -26, 19, -22, -24, 68,
  -74, 26, -21, -8, -80, 14, -46, 29, 21, -79, 38, 40,
  -29, -5, 71, 70, 51, 77, 86, 7, -4, -42, 61, -15,
  -23, -11, 20, -5, 62, 50, 21, 54, -56, 99, -55, -55,
  -57, 93, -26, -13, 13, -55, 24, 52, 52, -50, -48, 1,
  60, 64, -14, 27, 54, -36, 83, 58, -35, -67, -42, -15,
  -14, -31, -42, 65, 50, -28, 15, -39, -18, 10, -2, 51,
  -29, -23, -51, -15, -46, 46, 23, -51, -65, -35, -8, -34,
  3, -42, 61, 54, 22, -56, -63, 59, 63, -53, 6, 66,
  -57, 26, -1, -52, -69, 13, -35, -9, -59, -32, 14, 98,
  13, -32, 18, 52, 3, 31, 88, -5, 38, -53, 15, 76,
  21, -16, 8, -63, 34, -46, -33, 56, 19, -46, -17, 13,
  63, -57, -16, -70, -64, 54, 18, 99, -42, 16, 88, 72,
  72, 64, 52, -19, 99, -72, -38, 10, -79, 82, 67, 90,
  -9, 127, -14, 31, 121, 5, -90, 85, -36, 121, -29, 48,
  26, -18, -67, -35, 36, -66, -73, 41, 11, 42, 79, -76,
  62, -40, -3, -17, -28, 26, -77, 5, 7, -30, 30, 46,
  -4, -3, -78, 9, -52, 59, -15, -27, 30, 6, -70, 15,
  -47, -68, -20, 84, 100, 53, 89, 2, 43, -69, 86, 65,
  50, 22, 58, -67, -1, -64, 78, 5, -33, 0, 71, -34,
  29, -91, -46, 21, 3, 24, 116, -17, -7, 34, 60, 53,
  -13, -48, -16, 80, -22, 65, -99, -65, 40, -5, -40, -32,
  -1, -67, 81, 38, -20, -86, 27, 42, 5, 26, 25, -80,
  -46, 8, 77, 35, -49, 32, 100, -22, 3, 23, -8, 36,
  71, 40, -71, 8, 74, 66, 23, 1, -24, -89, 37, 29,
  -60, -90, 100, 79, 43, -107, 1, 13, 63, -17, 57, -2,
  65, -2, -39, -17, 57, 36, -35, 26, 40, 32, -46, -75,
  -35, 29, -39, 12, 69, 101, 1, -14, 74, 22, -71, 75,
  78, 51, -13, 78, 18, -36, -29, 29, 9, 6, -75, -68,
  -103, 35, -11, -69, -48, 78, -12, -82, -57, -9, -107, 52,
  -81, 23, -61, 56, -6, -6, 32, -52, -72, 44, -46, 52,
  0, -8, 9, 65, -58, -75, -52, 89, -2, 38, 99, 16,
  53, 21, -2, 91, 35, 91, 119, -32, 28, 54, 34, -76,
  82, -12, -2, 84, 65, 69, 60, 28, 21, 49, -32, -46,
  57, 2, 33, -55, -52, -41, 4, -43, -117, 76, 32, -43,
  0, 39, 5, -35, 48, 20, 4, -55, 86, 80, 2, 67,
  -12, 20, 5, -14, 80, 87, -21, -20, -17, 83, -33, 27,
  -101, 6, -94, -23, -84, 102, 18, -48,
};

const int32_t DENSE1_B[16] = {
  -33, -39, -168, 161, 0, -86, 30, 224,
  176, 205, 191, 133, 213, -201, 248, 491,
};

const int8_t DENSE2_W[48] = {
  -89, -19, -41, 9, 85, 9, -115, 73, 18, -60, -43, -96,
  114, -83, 87, 34, 56, 63, 93, 6, 1, 96, 49, 29,
  47, -45, 52, -82, -52, 94, -10, -126, 79, 62, -39, -100,
  73, -1, 33, -48, -118, 115, 127, 68, -44, -53, 66, -9,
};

const int32_t DENSE2_B[3] = {
  150, -205, 36,
};

#endif // NN_WEIGHTS_H